22 100 15
a -0.0015851291827857494 -0.0033118207938969135 -0.002934013959020376 -0.0016676071099936962 0.0035226629115641117 0.003332453314214945 -0.0018600367475301027 -0.0013433435233309865 -0.003628411563113332 -0.0044888718985021114 0.0011747871758416295 4.915037425234914E-4 -0.004140181001275778 0.0023245469201356173 0.003279708558693528 0.003999650478363037 -0.0027550281956791878 -5.622435710392892E-4 -0.0031152984593063593 0.002745424397289753 0.0013973319437354803 0.0026568216271698475 -0.002956584095954895 0.005212848074734211 0.002098764292895794 -0.0014395336620509624 -0.0033585873898118734 -0.0014904335839673877 -0.0013050525449216366 -0.002358219586312771 0.001415653619915247 -0.002265240764245391 0.001019395305775106 -0.004955373704433441 4.909471608698368E-4 0.0026182937435805798 0.004679448436945677 -0.0038079775404185057 -0.004194272216409445 0.004348338581621647 -0.0037394773680716753 0.0038207073230296373 -0.0019109626300632954 8.234769920818508E-4 -0.005524222273379564 -0.002410701010376215 -0.0048002093099057674 -0.003941316157579422 0.003685307689011097 -0.004552530124783516 -0.0022021429613232613 0.005247989669442177 4.968058783560991E-4 0.002332394476979971 -0.0032781697809696198 5.838297656737268E-4 -0.0015334687195718288 0.003952345345169306 -2.2242356499191374E-4 -0.00546889565885067 7.105035474523902E-4 0.001420681714080274 -0.0036198776215314865 0.005171258933842182 0.0029490843880921602 0.0035795976873487234 0.002927197143435478 0.003092461498454213 0.00492066890001297 -0.00229183048941195 0.0035561667755246162 -0.001228888868354261 -7.966835983097553E-4 -4.425726947374642E-4 -0.004016184713691473 -4.0869173244573176E-4 -0.00479879230260849 0.004072470590472221 0.0021823071874678135 -0.004860152956098318 9.789109462872148E-4 -0.0038920759689062834 0.00249004946090281 -5.29274984728545E-4 8.907206356525421E-4 -0.004429697524756193 0.0018501423764973879 -0.002543391427025199 0.002717536175623536 -0.004416989628225565 -0.0024188263341784477 -9.544739150442183E-4 2.445541904307902E-4 0.001868290826678276 0.0015450457576662302 -0.0019110790453851223 -0.0031803499441593885 8.496078080497682E-4 -0.0029576439410448074 0.002900530118495226
devoted 0.0038537238724529743 0.0022959879133850336 -0.0036754244938492775 -0.004069945774972439 0.0033392924815416336 -0.003324216464534402 0.0014671634417027235 0.0014672315446659923 -0.003542171325534582 0.004263391252607107 0.0038698269054293633 0.0023545490112155676 0.0029469390865415335 -8.347114635398611E-5 -0.00351864960975945 -0.001918160472996533 0.0021387548185884953 -9.146760567091405E-4 0.0024809720925986767 -0.0010736426338553429 -4.0112106944434345E-4 -0.00468982569873333 1.696835388429463E-4 -0.0012848841724917293 0.0032909822184592485 -1.2348058226052672E-4 -0.004157258663326502 -0.0041214339435100555 -4.0822793380357325E-4 0.0024031992070376873 -0.0037428115028887987 0.005361779592931271 -0.004473241977393627 0.004565149545669556 0.00136618223041296 -7.833249401301146E-4 0.002093183808028698 -0.00373934768140316 0.0023529622703790665 0.0020995677914470434 0.0023640363942831755 -0.0016127459239214659 -0.0041478341445326805 1.520711521152407E-4 5.414774059318006E-4 -9.947804501280189E-4 -0.00241531222127378 0.0026682380121201277 0.002086900407448411 -7.019515032880008E-4 -0.0026814029552042484 0.003933886997401714 -0.001877371221780777 -0.0014167276676744223 7.953224121592939E-4 0.003892969572916627 -0.0018445354653522372 -4.124741244595498E-4 -0.004943430423736572 0.00324995256960392 -0.00108328799251467 0.002579003106802702 -0.004594237543642521 -8.045803988352418E-4 0.0026942628901451826 -0.005199415609240532 0.0033027338795363903 0.0012562029296532273 0.001081232912838459 0.002221135189756751 0.0038857136387377977 -0.0026844709645956755 0.0023877271451056004 0.0027471173088997602 6.729793967679143E-4 -0.004073193296790123 0.0026447270065546036 7.208192255347967E-4 0.00246328953653574 -0.00428971741348505 -1.6408850206062198E-4 0.003145288908854127 0.0029711059760302305 -0.0034690056927502155 3.761113330256194E-4 0.003869830397889018 0.003025781363248825 6.314711754384916E-6 -0.00420473562553525 -0.002473971340805292 0.001138446619734168 0.0032024167012423277 0.0025040111504495144 0.0013423312921077013 0.00233851233497262 0.004223668947815895 -0.0022388172801584005 0.0036257856991142035 -0.003759204177185893 0.003211623290553689
ramas 0.004028948023915291 0.003638505470007658 0.0040242597460746765 0.00490277074277401 -0.0017747839447110891 0.004146544262766838 2.72763631073758E-4 -0.0010803543264046311 0.004854177124798298 -0.0018948850920423865 0.0029869580175727606 -0.0021256424952298403 5.90430514421314E-4 -3.8125342689454556E-4 -0.003817332210019231 -0.0016846819780766964 -3.000605502165854E-4 -0.0028323959559202194 -0.0030056056566536427 -0.004107651300728321 0.001303517841733992 -0.004137328360229731 -1.6397671424783766E-4 0.003471797564998269 -0.004067361820489168 -0.0032833204604685307 -0.0018171470146626234 -0.004881987813860178 -0.0032712582033127546 0.0023354734294116497 -0.003686268348246813 0.002096384996548295 1.0767300409497693E-4 0.0015077177667990327 5.489283939823508E-4 0.0035631689243018627 1.9939147750847042E-4 0.0029083627741783857 0.003605547361075878 0.0028463115449994802 0.0026645867619663477 -0.0037399218417704105 0.004450723994523287 0.0029170080088078976 0.0028198265936225653 0.0034559168852865696 -7.34160013962537E-4 -0.0016006658552214503 -0.004883473739027977 -0.004043740686029196 0.004427902400493622 -0.004338567610830069 0.0036614162381738424 0.00267471163533628 -2.452996850479394E-4 0.0037000065203756094 0.0040342011488974094 -4.952859017066658E-4 -0.0020672823302447796 0.003647193545475602 -9.09942842554301E-4 -0.002710831817239523 0.0017373047303408384 -0.004305094480514526 0.004248734097927809 0.0026381316129118204 0.002827649237588048 0.0037114182487130165 0.0011321535566821694 1.8028457998298109E-4 -0.001803634804673493 0.0030120862647891045 -0.0047007673420012 0.004722544923424721 0.004193756263703108 -4.817813460249454E-4 0.004574094898998737 6.651284638792276E-4 -4.894870799034834E-4 0.0026432755403220654 0.004993037320673466 0.0019376594573259354 0.0035400211345404387 -0.0010724886087700725 -4.1391036938875914E-4 0.0014101896667852998 0.0039306581020355225 -0.002185886027291417 -3.6214926512911916E-4 -0.0047744764015078545 3.555953153409064E-4 0.0024718591012060642 0.0050465320236980915 -0.004022493958473206 -0.00481315515935421 0.003649591002613306 -0.0031247080769389868 0.00465245358645916 -8.764452650211751E-4 4.843151255045086E-4
in -0.002954525174573064 9.95437614619732E-4 -0.004542692098766565 0.006271058693528175 -0.0020451394375413656 -0.0014935622457414865 0.002337170299142599 -0.004738956689834595 0.0018484361935406923 -0.004122596234083176 -0.004858339671045542 -0.004907306749373674 0.005902793724089861 0.0072066932916641235 8.942537824623287E-4 -0.001077480847015977 -0.0011674005072563887 7.21181626431644E-4 -0.005316179245710373 0.003709621960297227 -0.004622146021574736 -0.006380637176334858 0.0014184905448928475 0.0062803588807582855 7.082279189489782E-4 -0.005187307484447956 -0.006126539781689644 -4.7477989573962986E-4 -0.00151364179328084 0.0010631222976371646 9.586917440174147E-5 -0.004007368814200163 0.004105357453227043 -0.005094141699373722 -0.005269261077046394 3.049309307243675E-4 -0.0015655804891139269 0.002940915757790208 0.0020063905976712704 0.0017812796868383884 0.006012648809701204 -0.0011213389225304127 -0.00475404504686594 0.0017343857325613499 -4.7708163037896156E-4 -0.001700392342172563 0.0024463622830808163 0.0057709491811692715 6.868068594485521E-4 -0.0037203056272119284 -0.001180876512080431 -0.0030505722388625145 0.0015303530963137746 0.002460984978824854 0.004285433329641819 0.0022346677724272013 0.003099441761150956 -0.0035429648123681545 0.002541318302974105 -0.00231335056014359 0.005203559994697571 0.0025540413334965706 -0.006561086513102055 0.005442458670586348 0.004561057314276695 -0.004567337688058615 -8.735452138353139E-5 -0.006276517640799284 -0.0036078663542866707 -0.0019682033453136683 -0.002938182558864355 -0.003217328106984496 0.0035497676581144333 -0.0020465573761612177 0.0028062276542186737 0.004988858476281166 -0.0036739276256412268 -0.0053766327910125256 -0.006105504930019379 -0.005286859814077616 -0.0032823572400957346 0.0021965904161334038 -0.004261373076587915 0.005203185137361288 -0.0027562337927520275 7.841631886549294E-4 0.0021017289254814386 -4.0164205711334944E-4 0.0033164406195282936 0.005080190487205982 -9.487465722486377E-4 -5.758149200119078E-5 0.007244497071951628 -0.0017261215252801776 0.006200377829372883 0.001143034314736724 0.003624196397140622 5.074363434687257E-4 -0.0016240585828199983 0.0038772530388087034
king 0.0013062427751719952 0.00492107355967164 -0.004565144889056683 0.005097824148833752 -6.53708993922919E-4 -0.0017640156438574195 0.0015322758117690682 -0.0036716070026159286 0.0013296378310769796 -0.0039035689551383257 -0.0055975234135985374 -0.002225273521617055 0.0018693861784413457 0.00535347918048501 0.0018793315393850207 -0.004393832292407751 0.0038889350835233927 -0.001048702048137784 6.562818889506161E-4 9.959759190678596E-4 -0.002282904926687479 3.4464476630091667E-4 -0.00133053760509938 0.0016905383672565222 0.0023193678352981806 0.0037380901630967855 -0.003971732687205076 8.210369269363582E-4 -0.0049329521134495735 0.0038549010641872883 0.003994864411652088 0.004521466791629791 0.0019077288452535868 -0.003339349525049329 0.0016391109675168991 -5.009207525290549E-4 0.005402594804763794 -0.0035569402389228344 0.0040783206932246685 0.0013326560147106647 -9.429142228327692E-4 -4.6992202987894416E-4 0.0023028221912682056 -0.0027497890405356884 -9.501500171609223E-4 9.523167973384261E-4 0.0028834277763962746 0.0038285625632852316 0.004332409240305424 0.004780150949954987 1.304669858654961E-4 -9.668541024439037E-4 0.002520940965041518 -0.003917657304555178 0.0052153607830405235 -0.004291123244911432 -0.003930449485778809 0.003030321793630719 0.002931949682533741 -9.84686310403049E-4 -0.0047719222493469715 4.7975717461667955E-4 -0.005659095011651516 0.003515629330649972 -0.004352930001914501 1.3998508802615106E-4 -0.004431231878697872 -0.002220147754997015 -5.925343139097095E-4 -0.0019252231577411294 -0.0013650438049808145 0.0054099648259580135 0.00405249185860157 0.002503999276086688 0.0011515283258631825 9.325013379566371E-4 9.285611449740827E-4 3.3112638629972935E-4 -0.004222207237035036 3.543760976754129E-4 -2.9885023832321167E-4 0.003721952438354492 -0.0036018884275108576 -9.366131271235645E-4 -4.6405434841290116E-4 -9.181287896353751E-5 9.794661309570074E-4 -0.002498174086213112 -0.004120658151805401 -0.00496879406273365 -0.003247850341722369 0.005026999861001968 0.005227798596024513 2.8257136000320315E-4 -0.0036378311924636364 -0.004757597576826811 -8.420469821430743E-4 -0.003622405230998993 0.0016565937548875809 0.0011930683394894004
wife -0.002043612767010927 9.008991182781756E-4 0.004161474294960499 0.002709333086386323 0.0030045819003134966 -5.456001381389797E-4 0.001840746495872736 0.0016996196936815977 0.003870580345392227 0.004015139304101467 -1.4514981012325734E-4 2.3575933300890028E-4 -0.004378586076200008 -3.310148895252496E-4 -8.885351126082242E-4 -0.001601713360287249 -2.194366679759696E-4 0.0031571530271321535 -8.028788142837584E-4 -1.0909263073699549E-4 -0.00422394834458828 -0.0056406534276902676 0.0034773254301398993 -0.0025394007097929716 0.0033902728464454412 -0.0030608652159571648 -0.003388821380212903 -0.0024752113968133926 -0.002234767423942685 -3.158101171720773E-4 -0.0024577167350798845 -9.716435451991856E-4 0.004425744526088238 0.0021991366520524025 0.0014913500053808093 0.006189065985381603 0.004135913215577602 0.006154513452202082 0.001679853885434568 0.0024913791567087173 -0.0023285618517547846 -0.0017063202103599906 6.574098952114582E-4 0.003890851978212595 -0.0062839859165251255 0.004710168577730656 -0.004935915116220713 0.004469946026802063 0.004755484405905008 5.14762126840651E-4 -0.00231361435726285 -0.0026731558609753847 1.3495163875631988E-4 0.001860500662587583 0.00308380089700222 2.510480408091098E-4 -0.003638527123257518 -5.043515702709556E-4 8.196557755582035E-4 -0.003308735555037856 -1.769616355886683E-4 0.004753204062581062 -0.005233623553067446 0.002524352166801691 1.0040296911029145E-4 -0.0045526293106377125 -0.005656459368765354 -8.33420897834003E-4 0.001979761989787221 0.0034737102687358856 -3.1300538103096187E-4 0.003394621191546321 -0.0018633248982951045 0.006052237469702959 -0.0023479219526052475 0.001963058952242136 0.0020040201488882303 3.974470600951463E-4 -0.0043857707642018795 -0.003259873716160655 1.1803396773757413E-4 -1.0328313510399312E-4 0.005866045132279396 -0.0033146257046610117 -0.005232146009802818 -0.0035011449363082647 0.0020274226553738117 -0.0027857739478349686 -0.0046220701187849045 -0.005653230473399162 -7.514579192502424E-5 6.731979374308139E-5 -0.002818548120558262 -0.0034982103388756514 -7.681315764784813E-4 0.0015389667823910713 0.003514123149216175 -0.0015615579904988408 6.628367118537426E-4 -0.004668526817113161
lord 0.0017175596440210938 0.0032808491960167885 0.004077084828168154 -0.0037752550560981035 0.004525922238826752 -7.881276542320848E-4 -0.002020816784352064 -0.00442533940076828 0.0043823374435305595 7.304417085833848E-4 -0.0029528927989304066 0.002731193555518985 -0.0018129623495042324 0.005469924304634333 4.083133244421333E-4 -0.002551079960539937 -0.002273544203490019 0.0015876335091888905 -0.003693575970828533 0.0014592154184356332 0.0033693963196128607 -0.0029559435788542032 0.001995533937588334 0.004372432362288237 -0.003567579435184598 -0.0028583465609699488 -0.0045250700786709785 -0.002220065100118518 0.0012661570217460394 0.002880977001041174 -0.0025109644047915936 -0.0033229610417038202 8.420383092015982E-4 -0.004639871884137392 -0.003522873390465975 -0.0018789893947541714 -0.0032352476846426725 0.00296432850882411 0.004684516694396734 -0.004465373698621988 0.001511308248154819 0.003119277535006404 -0.003068930469453335 8.299274486489594E-5 -7.279702695086598E-4 -0.001648381003178656 -0.004350162111222744 0.0052093034610152245 -0.003044525161385536 -0.0027611686382442713 -0.002313462784513831 -0.0028724258299916983 0.003274589544162154 -0.00458044558763504 0.003813057206571102 -2.041585830738768E-4 -0.0027523692697286606 3.026820777449757E-4 9.390046034241095E-5 -2.727135142777115E-4 -0.002943413332104683 0.0015346237923949957 0.002269826363772154 0.0014529185136780143 0.002555646002292633 -0.0024666842073202133 -0.0021606781519949436 0.002795760752633214 4.483610682655126E-4 0.005508739501237869 -0.00287764985114336 -0.004803147632628679 -1.06128936749883E-4 0.003990876022726297 0.0036984297912567854 0.0019801915623247623 -0.0041735609993338585 -7.73248786572367E-4 -0.004801029339432716 -0.0028325142338871956 -0.0020964257419109344 -0.0024487823247909546 -0.004371537361294031 -0.0044324989430606365 0.0015480925794690847 -0.0014587566256523132 0.003241566475480795 0.0037104131188243628 0.0025551270227879286 4.39298601122573E-4 0.0033182811457663774 7.727104239165783E-4 0.004502783063799143 -0.003336374182254076 -0.002586871385574341 0.004987947177141905 0.0035550608299672604 -0.0019128619460389018 -0.005102477967739105 -0.0012687991838902235
was 0.004993921611458063 -0.0021187984384596348 0.0010823493357747793 0.004359774757176638 0.00579643901437521 -0.003986402414739132 0.005532559473067522 0.00539555074647069 -0.0034556672908365726 0.0022252376656979322 9.002875885926187E-4 -0.003864709287881851 -0.0012330692261457443 0.0058923582546412945 -0.0011205649934709072 0.0012282312382012606 4.49214392574504E-4 -0.00412370078265667 -0.0045237173326313496 -0.0031063403002917767 5.29267534147948E-4 0.0014392619486898184 0.0014255637070164084 0.0035316492430865765 0.003607555292546749 0.0022441823966801167 -0.0045438832603394985 -0.001296348636969924 0.0026217710692435503 -0.003078369190916419 -0.0038850370328873396 0.006021874491125345 2.5661179097369313E-4 -0.00554540753364563 -0.005269150715321302 0.0011542999418452382 -0.0044664619490504265 -0.0033260080963373184 0.0011994900414720178 0.00354637298732996 0.00549700204282999 -0.0032123946584761143 -0.004945164080709219 7.608281448483467E-4 -0.003904598532244563 -0.0015250915894284844 -3.864406025968492E-4 0.0012509943917393684 0.0023311213590204716 -0.00658648693934083 0.006842127535492182 -0.0031396248377859592 0.0016700784908607602 0.002919053891673684 0.005908050574362278 9.377559181302786E-4 -0.0064573101699352264 -8.805083343759179E-4 0.0012489182408899069 0.0042554051615297794 6.154658040031791E-4 0.003812676528468728 0.003915021196007729 0.0012352588819339871 -1.019310875562951E-4 -8.741749334149063E-4 0.0022125246468931437 -0.005238449666649103 -2.3252214305102825E-4 0.00593929085880518 -0.0023153088986873627 4.601825203280896E-4 -9.81803867034614E-4 0.0060971565544605255 3.372244827914983E-5 0.0021069005597382784 0.002175377681851387 0.0011470005847513676 0.001220319769345224 0.0022687027230858803 8.669940289109945E-4 -7.766088237985969E-4 -0.002487259218469262 -0.002722591394558549 -0.006084267050027847 0.0015353113412857056 1.4660264423582703E-4 0.0030078203417360783 -0.001709901844151318 0.0027781424578279257 0.001926354249008 0.0063070934265851974 0.006577627267688513 0.001479449332691729 -0.0013698156690225005 -0.003991816658526659 0.005253300070762634 0.0028312585782259703 5.140214343555272E-4 0.0035885751713067293
exile -0.003635006956756115 0.004085465334355831 -0.004431992769241333 0.0022328877821564674 2.966154715977609E-4 0.004252741578966379 0.004823050927370787 -5.857032374478877E-4 -0.0013971311273053288 0.00468183821067214 0.0019098523771390319 0.0035685934126377106 0.0010418064193800092 0.002024810528382659 -8.115570526570082E-4 0.0040073334239423275 -0.003690110519528389 -4.968164721503854E-4 0.0022788282949477434 9.739288361743093E-4 0.0038364194333553314 -0.005532823968678713 0.0033935161773115396 -0.00493707275018096 0.001991685712710023 -0.004259789362549782 -0.0029165223240852356 0.004527665209025145 0.0029834527522325516 -0.0038918587379157543 0.002479799557477236 0.002285151509568095 8.651446551084518E-4 -0.0022490613628178835 -0.0035555369686335325 0.005000726785510778 0.0035114586353302 -0.001538809621706605 0.0033287096302956343 7.893697475083172E-4 -0.0046624536626040936 -0.002113793743774295 0.00239941687323153 -5.286923842504621E-4 0.0026109968312084675 0.0042492980137467384 -0.004875717218965292 0.004182353150099516 0.001992802368476987 -6.016998086124659E-4 0.0019065667875111103 0.0021715688053518534 -0.0015177311142906547 -0.0035270710941404104 0.004720793571323156 0.005357932299375534 -0.004706672392785549 -0.0018377212109044194 -4.894253215752542E-4 0.003878592746332288 -3.8092541217338294E-5 0.002371677430346608 0.003438667394220829 0.0035103473346680403 0.002742509124800563 -5.412947502918541E-4 0.0011276992736384273 -0.0023343106731772423 -4.511185106821358E-4 0.005565523635596037 0.005493954289704561 0.0030146294739097357 -0.003545572515577078 -6.318140076473355E-4 -0.0030876074451953173 0.002723387209698558 0.0027110932860523462 -0.0030711055733263493 5.677542649209499E-4 0.0035389752592891455 -0.001129492768086493 -0.0014764567604288459 -0.0015335665084421635 0.0011785501847043633 -3.482673128019087E-5 -0.004853812046349049 0.0011424130061641335 1.1095681838924065E-4 -0.001461743493564427 0.0016485751839354634 -0.0037028808146715164 0.0035469341091811657 0.0050282953307032585 -0.0033890199847519398 0.003948521800339222 0.001412389799952507 0.002021701540797949 -0.003715203143656254 0.004135346971452236 0.0010924650123342872
is 0.0030254004523158073 -0.002938280114904046 -0.004140025470405817 -0.004708901979029179 0.0016460483893752098 -3.6474739317782223E-4 0.005055994726717472 -0.004751949571073055 0.0017978650284931064 -0.003909829538315535 0.001497885910794139 -0.004915742669254541 0.0025840981397777796 0.0024761005770415068 -0.002562780398875475 3.431238292250782E-4 0.002176343696191907 0.002912311116233468 -6.632192526012659E-4 3.0710618011653423E-4 -0.0021019105333834887 -0.004296300932765007 -0.0011103637516498566 -0.004517167340964079 0.0022839754819869995 -0.004576632287353277 -0.004366971552371979 -0.003121165558695793 0.004281551111489534 -0.00348202558234334 -4.1233267984353006E-4 0.0039566392078995705 0.003606508718803525 1.0043373913504183E-4 0.003036234760656953 -0.0017143022269010544 -6.166680832393467E-4 9.066103375516832E-4 0.004103333689272404 0.004035471472889185 0.005241601262241602 -0.0018425771268084645 6.587131065316498E-4 0.005147149786353111 0.0026269727386534214 -0.002834647661074996 -3.519682213664055E-4 -0.004267732612788677 -4.8649852396920323E-4 0.004339470062404871 0.0039060390554368496 -5.13180682901293E-4 0.004065415821969509 0.00541174691170454 -0.004188822116702795 -0.001163202105090022 6.711619789712131E-4 7.171870092861354E-4 -0.0014969744952395558 -0.0020126018207520247 -2.8895371360704303E-4 0.001616791938431561 -0.0013266060268506408 -0.0017168199410662055 0.0010575094493106008 0.004316748585551977 -0.005272816400974989 -0.0012673863675445318 0.0036304821260273457 7.174346828833222E-4 -0.004171072039753199 0.0042322976514697075 0.0020009963773190975 0.004241269547492266 0.0023473305627703667 0.003934038337320089 -0.003900889540091157 -0.0016643372364342213 -0.00312883616425097 0.0023101288825273514 7.716726395301521E-4 -0.004641740582883358 4.510946455411613E-4 -0.004156297538429499 -0.001725061796605587 0.0034102718345820904 -0.0031888154335319996 -5.458107916638255E-4 -0.004331205505877733 2.5358254788443446E-4 0.0034782651346176863 0.001355890417471528 0.00500269653275609 6.742614787071943E-4 -0.0026010433211922646 0.0031731745693832636 -0.0028809623327106237 0.004310915246605873 0.0020931351464241743 0.0040339576080441475
life 0.0013063912047073245 0.0011730550322681665 -4.659731930587441E-4 0.005179449915885925 3.835802781395614E-4 -0.0018804898718371987 0.005238439422100782 -0.002876304555684328 0.0030146765056997538 1.016202659229748E-4 0.002982532372698188 -7.438284810632467E-4 0.0025470235850661993 -0.0014595930697396398 0.0012312551261857152 0.0027217455208301544 3.3481328864581883E-4 -3.385927411727607E-4 -1.1859575897688046E-4 0.0016766375629231334 -0.003598724491894245 -0.003925117664039135 -7.866478990763426E-4 0.0031414960976690054 -0.0012939044972881675 -0.002403863240033388 0.0039922078140079975 -0.0023784770164638758 -0.0020517355296760798 4.785245400853455E-4 7.907614926807582E-4 0.005227033980190754 0.0033501372672617435 0.002827724441885948 5.916596273891628E-5 -0.0037185577675700188 -0.0032368390820920467 -0.0030414278153330088 -0.004167357459664345 0.0027377097867429256 -3.0388045706786215E-4 9.322718833573163E-4 -0.006144510116428137 0.0052415756508708 -7.529692957177758E-4 -2.618151484057307E-4 -0.002303009619936347 0.005812194664031267 0.0031567641999572515 0.0038918170612305403 0.0038146860897541046 4.866575472988188E-4 -0.0022528863046318293 0.005895289126783609 2.1864104201085865E-4 3.25793051160872E-4 0.0013422392075881362 0.00413192855194211 0.0037527114618569613 -0.002768118865787983 -0.0020610978826880455 -0.0011035776697099209 -7.443263893947005E-4 0.004345873836427927 -0.0037201931700110435 -0.006440790370106697 0.0032845097593963146 -0.004612093325704336 0.0011918814852833748 0.005209337919950485 -0.0012473849346861243 9.335440117865801E-4 -0.0015127584338188171 0.002243036637082696 7.146127609303221E-5 0.004466853570193052 -0.004296660423278809 -0.0037321625277400017 -0.004247212782502174 8.933563949540257E-4 -0.0023784260265529156 0.004326251335442066 0.004055241588503122 0.003890006337314844 -5.905800499022007E-4 -1.1315060692140833E-4 -9.342952398583293E-4 -4.5236042933538556E-4 5.800625658594072E-4 7.249679183587432E-4 -0.004124700557440519 -0.0016070971032604575 0.0037426366470754147 -0.0017252473626285791 0.0011167351622134447 0.005028991959989071 0.0022873440757393837 -0.0015763690462335944 -0.004563172347843647 9.519857121631503E-4
righteousness -0.003279508790001273 -0.0030311269219964743 0.0020216223783791065 -0.0034636156633496284 8.028168813325465E-4 -1.9077486649621278E-4 -0.0038870004937052727 7.942515658214688E-4 7.31885083951056E-4 0.0022358777932822704 -0.004778653383255005 0.004403979051858187 0.0027153450064361095 0.0020763040520250797 0.003962959628552198 -0.0012141760671511292 0.005068065598607063 2.2698314569424838E-4 0.0030171158723533154 0.0025289200711995363 -0.0028166617266833782 0.001554184826090932 5.249424139037728E-4 0.0029157071840018034 -0.0022326703183352947 -0.004020892549306154 -5.358539638109505E-4 -0.0011430016020312905 0.0013197726802900434 0.001651983940973878 -0.0014031630707904696 -6.395687814801931E-4 -0.002321582054719329 -0.0023988953325897455 -0.0013467507669702172 -0.003125260816887021 0.004471041727811098 0.0014209530781954527 -0.0010904084192588925 -4.250477359164506E-4 7.098087226040661E-4 -0.004830950405448675 0.0012259428622201085 -0.0014842775417491794 -0.0027279641944915056 -0.0012224768288433552 0.003944998141378164 1.5021234867163002E-4 0.0037864716723561287 -0.0023885814007371664 0.0023617816623300314 0.002496616914868355 0.001887112739495933 -0.0035826696548610926 -0.0030318303033709526 0.0034833941608667374 0.004210215527564287 -0.004741956014186144 -0.0011601133737713099 0.0024421464186161757 -0.0039971680380403996 0.0036165751516819 0.0016003231285139918 -0.0030041360296308994 0.0023246966302394867 0.001350014004856348 -0.00167505769059062 -0.00519967544823885 -0.0012159283505752683 -0.003753280732780695 0.0023869266733527184 0.005059927701950073 -0.0042467275634408 0.0014884448610246181 0.0032848615664988756 -0.0014112945646047592 -0.004085097461938858 -0.0022541878279298544 0.002114819595590234 0.003911968320608139 -7.815795834176242E-4 -0.0025479684118181467 0.002981061115860939 -0.003734587226063013 -0.0022385993506759405 -0.004347889684140682 -0.005030880682170391 -9.419062989763916E-4 -0.004450174979865551 -0.004405537154525518 -0.004822299350053072 -0.002993740374222398 0.0028731105849146843 -0.0017684551421552896 -7.175064529292285E-4 -6.689699948765337E-4 0.004901465028524399 0.003175548743456602 -0.002379365498200059 -0.0026499140076339245
the -0.0036329003050923347 -0.002060690661892295 0.007155479863286018 -0.004128868225961924 0.004680788144469261 0.005336909554898739 0.005786126479506493 0.004170576110482216 0.001501846476458013 0.006725810002535582 0.0012671647127717733 0.0029080265667289495 0.0030759316869080067 0.006518813315778971 -0.005155293270945549 0.0065721189603209496 -0.002166900783777237 -0.0030175698921084404 -0.0022657704539597034 0.0017847265116870403 0.005776714067906141 -0.004265884403139353 -0.004712205845862627 0.0062507991679012775 0.0012729738373309374 9.547104127705097E-4 -4.4091648305766284E-4 0.005971735808998346 -0.001940468093380332 -0.006747552193701267 7.904884405434132E-4 0.002413297537714243 0.001853029360063374 -0.005204002372920513 0.0021981950849294662 4.102075763512403E-4 2.44910508627072E-4 0.005225426517426968 0.0015730083687230945 -0.002789401914924383 -6.652922602370381E-4 9.442314621992409E-4 -0.007990604266524315 -0.002599929692223668 -0.0069748954847455025 0.005304533988237381 -0.0012858703266829252 0.006328403018414974 0.00572459539398551 0.001890308572910726 0.0015754644991829991 -0.003583246609196067 -0.001553000183776021 0.004616625607013702 0.002742127515375614 -7.69938196754083E-5 -2.084690931951627E-4 0.0034266815055161715 -0.0026864197570830584 -1.1914448259631172E-4 0.0023542181588709354 0.0053323195315897465 -5.726387607865036E-4 0.004262031055986881 -0.003189092269167304 -0.006743378937244415 0.006283008959144354 8.782981312833726E-4 0.008187604136765003 0.0070357853546738625 0.007348119746893644 -6.283184484345838E-5 0.001816414762288332 0.0046792239882051945 0.0012942636385560036 -0.00506719620898366 0.0037468262016773224 0.0035303921904414892 -0.0013884884538128972 0.0017973373178392649 -0.0021874362137168646 -0.006013610400259495 0.0016626428114250302 -0.003308885032311082 -7.03638419508934E-4 -0.003112576901912689 -0.004726184066385031 -0.00470354687422514 -0.003228843444958329 -0.004898279905319214 0.005114244297146797 0.002329318318516016 0.005893921945244074 -0.003322130534797907 -5.856089410372078E-4 -9.90112661384046E-4 0.006480329670011997 -0.005259587429463863 0.002228668425232172 -0.0061828941106796265
as -0.00451227743178606 0.0024636993184685707 -6.842185975983739E-4 0.005009876564145088 -0.001950389239937067 -0.0035415119491517544 0.002641421277076006 -0.0016209031455218792 -0.004098208155483007 0.0028641410171985626 -0.0053092921152710915 0.002393594942986965 0.0016178905498236418 0.0012858108384534717 -0.0027706839609891176 1.1842527783301193E-5 0.002317145001143217 0.0028999303467571735 0.0011214324040338397 -0.004518117289990187 -0.00309735001064837 0.004125059116631746 0.003430362557992339 0.004513632971793413 0.002786173950880766 -0.0024379605893045664 0.0016569020226597786 0.0034685719292610884 4.327573406044394E-4 0.003890077816322446 -0.00224815565161407 2.991663059219718E-4 0.004281321074813604 -0.0044326153583824635 -0.0038117719814181328 0.0018921839073300362 -2.267535455757752E-4 -0.0030509380158036947 -0.0037331965286284685 -0.0030516544356942177 -2.8371147345751524E-4 2.2901910415384918E-4 1.445256930310279E-4 -7.822964107617736E-4 -0.0034348254557698965 -0.003618733026087284 9.174240403808653E-4 -0.0025247992016375065 -5.185416084714234E-4 -8.588008931837976E-4 0.0043725366704165936 -0.0031440905295312405 -0.0036672265268862247 -0.001890236628241837 -0.0035665121395140886 0.003745265305042267 -0.005887197330594063 9.155664010904729E-4 0.003974569961428642 0.00386128481477499 0.002900893334299326 0.0024380269460380077 7.238636608235538E-4 3.1003623735159636E-4 9.237497579306364E-4 0.0027437140233814716 -0.005684125702828169 1.4887579891365021E-4 0.0013044043444097042 0.0033697867766022682 -0.004922270774841309 -0.0013070504646748304 0.001180338440462947 -0.003811887465417385 0.005182769149541855 0.005288076587021351 0.0014067194424569607 -0.005780750885605812 -0.005007601343095303 -0.0017942788545042276 0.003823209786787629 -0.0045797922648489475 8.80151113960892E-4 6.177385221235454E-4 -0.0026136082597076893 0.0019019756000488997 -9.741336689330637E-4 0.0028264119755476713 -0.0026369825936853886 0.0015997807495296001 0.004402548540383577 0.0014883062103763223 0.0034049414098262787 -8.999085985124111E-4 0.0043502869084477425 0.004163218196481466 0.0037901715841144323 0.003837138880044222 -0.005171777680516243 0.0011826875852420926
his -0.004511983133852482 0.00234957761131227 -0.00374741037376225 -0.0024787066504359245 0.002610276686027646 0.0013467433163896203 0.00584392249584198 -0.005561100319027901 -0.004274866543710232 -0.002277541207149625 -0.005100530106574297 0.0025144743267446756 5.248784436844289E-4 -0.003022520337253809 -0.004653411917388439 -4.7640237607993186E-4 0.00320791476406157 0.0018073500832542777 -0.004302041605114937 0.0015428594779223204 0.0013083739904686809 -0.00403641490265727 -2.190714585594833E-4 -5.975550157018006E-4 0.005208364222198725 -3.5211630165576935E-4 -2.579404681455344E-4 -5.744232912547886E-4 -0.004518061876296997 0.004574292339384556 9.417241381015629E-5 0.004658963531255722 -0.005147931631654501 -0.003950954880565405 0.004755488596856594 0.001795235788449645 0.005884995684027672 3.2089586602523923E-4 -0.00474659726023674 -0.0011634442489594221 0.0014276625588536263 -0.0021158854942768812 -0.006494560278952122 -6.178601179271936E-4 0.0012917544227093458 0.0017137591494247317 -0.0021547030191868544 0.005492263939231634 -7.668786565773189E-4 0.003910915460437536 0.006020516622811556 -0.0016865611542016268 -1.2630262062884867E-4 -0.004044945351779461 7.283985614776611E-4 5.491140764206648E-4 -0.0012513728579506278 0.0018172902055084705 4.657694371417165E-4 -0.004817598033696413 -5.897334194742143E-4 0.005450685508549213 -0.001228146837092936 0.0046885353513062 -0.0017025112174451351 -0.006838393397629261 -0.0014130977215245366 0.0031288759782910347 0.004191840998828411 0.0021641270723193884 -0.004244124051183462 0.002144177909940481 -0.005401480942964554 -0.0016448948299512267 0.0021386886946856976 -0.0033975134138017893 -0.004999436903744936 0.0033601399045437574 -4.832938138861209E-4 -7.616808288730681E-4 0.0029126093722879887 0.0015808328753337264 -0.0018885995959863067 0.0027562356553971767 0.0032639603596180677 4.7120387898758054E-4 0.0013858969323337078 0.004408656619489193 -0.0037228704895824194 -0.002765790792182088 0.003253665054216981 -0.0014894118066877127 0.006232898682355881 0.0027671277057379484 0.0030756916385143995 0.0029402447398751974 7.633341592736542E-4 0.0017184610478579998 0.003998647443950176 -0.0016361380694434047
her -0.003948276862502098 0.002018752507865429 -0.0030945888720452785 -0.004307653289288282 2.857181243598461E-4 -0.0031696674413979053 -0.001223823637701571 -0.004163767676800489 0.0010666071902960539 0.0011693089036270976 -0.002730743261054158 6.628682021982968E-4 -5.291562993079424E-4 -6.19885977357626E-4 -6.917729042470455E-4 -0.0010620158864185214 -0.004842025227844715 0.0014617973938584328 0.004033950157463551 -0.003282397286966443 0.0018757340731099248 0.0035278252325952053 -0.002523623174056411 -0.004635978024452925 -1.4112134522292763E-4 0.005239685997366905 0.004781307186931372 -0.003516758792102337 0.004349511116743088 0.0033282192889600992 0.0024882026482373476 -0.001536889816634357 -0.0022734024096280336 2.2113566956249997E-5 -0.00218219798989594 -1.817740485421382E-5 2.7312044403515756E-4 -0.002515559084713459 0.004193034488707781 0.0016781628364697099 0.0010316824773326516 -0.0030151663813740015 0.002395224990323186 -7.533456082455814E-4 0.00479978509247303 0.0010789674706757069 0.0015772461192682385 -0.0015096107963472605 -7.643295102752745E-4 0.005120178684592247 -0.0021919552236795425 -7.245620363391936E-4 -0.001566784456372261 -5.903408746235073E-4 -0.0027637407183647156 0.004600150510668755 0.004468357190489769 9.500055457465351E-4 -0.004917817655950785 -0.004172471817582846 -0.0038730697706341743 0.00257539888843894 0.004916452802717686 0.003468685783445835 -0.004195159301161766 8.850416634231806E-5 -9.027054766193032E-4 0.005586033221334219 -0.0037928323727101088 -6.088941590860486E-4 0.004932723939418793 0.0030850146431475878 0.003797822166234255 -0.002181085292249918 0.0017006541602313519 -0.0028471131809055805 -0.0041132159531116486 -0.003687895368784666 0.003549625864252448 0.0035551164764910936 -0.0033441507257521152 0.003002943703904748 6.981976184761152E-5 -3.2587064197286963E-4 0.0046066464856266975 9.085282799787819E-4 -0.0012230455176904798 -0.004263688810169697 -0.005224503111094236 2.8152012964710593E-4 -0.005370497703552246 0.002117551863193512 -0.0012469475623220205 0.003633236512541771 4.8184822662733495E-4 -0.0019442156190052629 -0.0020450721494853497 0.002315778285264969 -1.88007703400217E-4 0.001949360128492117
sita -0.0021285037510097027 -0.0026844614185392857 -0.003467191942036152 -2.1790695609524846E-4 -0.0021600520703941584 0.004817734006792307 2.2127166448626667E-4 9.173518046736717E-4 1.524425606476143E-4 -0.004657251760363579 0.00298485835082829 -0.003935151267796755 0.0044389450922608376 0.0025721986312419176 -0.003889195853844285 -0.002807284938171506 7.861424819566309E-4 0.00223941495642066 -0.004951027221977711 -0.0019266065210103989 -0.002848565112799406 0.003904969897121191 -0.0037952400743961334 -0.0028973736334592104 0.004678818862885237 0.0010918136686086655 -0.002776356879621744 0.004611867945641279 0.003965212497860193 -0.003202396910637617 0.0019236180232837796 0.00198339088819921 -0.004091834183782339 -0.0013696817914023995 -0.0019570423755794764 -4.4499002979137003E-4 3.972435952164233E-4 0.0032384395599365234 -4.0377298137173057E-4 0.0030982375610619783 0.005283128935843706 0.004550613928586245 -0.0025663806591182947 -0.003128132550045848 0.0027813196647912264 1.1740398622350767E-4 0.004375350661575794 0.002272386569529772 -0.0018386797746643424 0.003767479443922639 -0.004207275342196226 -1.8018274568021297E-4 -0.0016151366289705038 -0.0022598854266107082 -0.0019980797078460455 -0.0038905544206500053 -0.005025940015912056 -0.0044894530437886715 -0.003365060780197382 -0.00303555722348392 0.0037041662726551294 0.0017769437981769443 0.00325294048525393 -4.6230361476773396E-5 0.002003508387133479 -0.004978395998477936 -0.0036536541301757097 -0.0027148963417857885 0.002345192711800337 0.0017058971570804715 0.0030871646013110876 0.002160935662686825 0.00433530006557703 0.0042317453771829605 -0.0038729896768927574 -0.0029335319995880127 0.0022180997766554356 -0.0038960075471550226 0.0038338995072990656 -0.0010776895796880126 -0.0020248389337211847 2.5861061294563115E-4 4.834863357245922E-4 -0.0037170802243053913 -0.0015918228309601545 -0.00552918016910553 0.0033076105173677206 -0.003540952457115054 -0.0045373947359621525 -0.004615390207618475 -0.0013170025777071714 0.005014529451727867 0.0059995804913342 -0.0010678822873160243 0.0028759855777025223 -0.003945927135646343 -0.0012020358117297292 0.0031704979483038187 0.001956015359610319 -0.002740683499723673
rama -0.0015288644935935736 9.852395160123706E-4 0.00531364418566227 0.004627827554941177 -3.9008085150271654E-4 -0.004547253251075745 3.9997074054554105E-4 -0.004165356978774071 -9.893232490867376E-4 -0.004562924150377512 -0.003218221478164196 7.531066075898707E-4 0.0019837331492453814 1.5175470616668463E-4 7.842881605029106E-4 -0.0025437206495553255 0.0011519202962517738 1.8828664906322956E-4 0.0021420365665107965 0.0023893218021839857 -0.0018992498517036438 -0.002761893905699253 -0.0010931245051324368 0.00354374130256474 0.002662201412022114 -0.002651397604495287 -0.004578269086778164 0.005845166742801666 -0.004022358451038599 0.004339538514614105 0.0020366820972412825 0.002123714191839099 5.093842628411949E-4 5.364477983675897E-4 -0.0021302879322320223 -9.674777975305915E-4 -7.852734415791929E-4 0.0027634170837700367 -0.003427802352234721 -0.003052842104807496 -0.003828624961897731 7.252265932038426E-4 -0.004160151816904545 -0.001646564807742834 -3.067350189667195E-4 -0.002855548867955804 -0.005379075184464455 0.006829689722508192 0.004041802138090134 0.003207364585250616 -8.751233690418303E-4 0.002158928895369172 -0.005300979129970074 0.0045810299925506115 0.006052425131201744 0.0023429833818227053 -0.0015317400684580207 0.0025480424519628286 0.004516263958066702 -0.003108761040493846 0.001604611286893487 0.001193974749185145 -0.0056465701200068 0.00414816802367568 -0.002119611483067274 -0.002326421672478318 0.001247249892912805 -0.005357506684958935 0.0061376504600048065 0.006257269997149706 0.0030221675988286734 -1.2194064765935764E-4 0.0015653078444302082 5.575602408498526E-4 -0.0011945689329877496 0.00561948399990797 -0.005241374485194683 0.002596066566184163 0.001438518869690597 -0.0015969087835401297 -0.005055090878158808 0.0022003217600286007 0.0012549657840281725 -0.0025383129250258207 -0.0046682292595505714 -0.0014218370197340846 -0.0034251485485583544 0.0010381825268268585 -0.002686531515792012 9.495429694652557E-4 -0.0025074242148548365 -0.0031671072356402874 1.2065521150361747E-4 -6.93551148287952E-4 0.003971877507865429 0.003365506883710623 4.688352928496897E-4 -0.0038180858828127384 0.003844632999971509 2.1920404105912894E-4
and 0.006136766634881496 0.0012556943111121655 0.0038361719343811274 -0.004906941670924425 0.005753321573138237 0.00445376755669713 -0.003167566377669573 0.001161682652309537 -0.00506953289732337 -0.0018225753447040915 -0.004930178634822369 0.0023808772675693035 0.00340837799012661 -5.966698518022895E-5 0.0027839511167258024 -0.004259355831891298 0.00262483605183661 0.0036064402665942907 -0.0034490313846617937 -0.005839171353727579 -0.0018085757037624717 -0.003886813996359706 -0.002575671998783946 -0.0012531644897535443 0.005229271948337555 -0.0011781294597312808 -0.005342722404748201 0.0046831839717924595 0.0042781224474310875 0.004091043956577778 0.00108210532926023 0.0032971585169434547 0.005379515700042248 -0.0039131357334554195 -0.002261896152049303 -0.0033046603202819824 -0.004634614568203688 0.001099460176192224 0.003231073496863246 -0.002290943171828985 0.003143448382616043 -0.0011294069699943066 0.0023096182849258184 0.004693172872066498 -0.0029221284203231335 0.006181657779961824 -4.71762876259163E-4 -0.001276795519515872 0.005282852798700333 -0.004536131396889687 0.0015996791189536452 -0.002817900152876973 0.0027515150140970945 -0.0035515688359737396 -0.0030709707643836737 0.004691585898399353 -0.0031339165288954973 -0.001192759838886559 0.001916204928420484 0.004003083799034357 0.00265267095528543 0.0018625757656991482 0.004747937899082899 0.004412819165736437 -2.4966671844595112E-5 0.0016850099200382829 -0.003761077532544732 -0.005198267754167318 0.005041813012212515 0.0071589709259569645 0.002334644552320242 -0.004001350607722998 6.816443055868149E-4 -0.0028332965448498726 0.005598762072622776 -0.005310680251568556 0.0014211959205567837 -0.006035889498889446 -0.0022277291864156723 0.002631873358041048 0.006166177336126566 -0.004803671035915613 0.003038238501176238 0.0027046361938118935 -0.006694137584418058 -0.005933195352554321 0.0021022865548729897 -0.0033286712132394314 -9.746342548169196E-4 0.0021289049182087183 0.004683666862547398 8.0262211849913E-4 0.0021714670583605766 0.0033954489044845104 -0.005257418379187584 8.358704508282244E-4 0.005124907940626144 -0.002287140116095543 -0.004140701610594988 0.003320181043818593
of 0.00227923970669508 0.005981966853141785 0.009327665902674198 0.004289963748306036 0.0036033953074365854 -6.16201781667769E-4 0.006805616896599531 -0.0028588867280632257 -0.004218591842800379 -9.46773390751332E-4 -0.006921146064996719 -0.004050472751259804 0.0013263950822874904 0.011559081263840199 0.0017188123892992735 9.880629368126392E-4 -0.0015840389532968402 -0.007340810261666775 -0.0027955893892794847 -0.0046522896736860275 0.0035836489405483007 -0.009370509535074234 2.310281852260232E-4 0.008457431569695473 -0.0018545874627307057 2.6469334261491895E-4 0.001138733932748437 0.005123065318912268 0.0025416563730686903 0.003290303749963641 -0.004403525963425636 0.007819504477083683 -0.0018636365421116352 0.0014895458007231355 -0.0014134765369817615 0.004823579918593168 0.0044037578627467155 0.008894026279449463 0.003690348006784916 0.006325537338852882 0.006113996263593435 0.001977357314899564 -0.010980319231748581 0.003999436739832163 -0.008636846207082272 0.005753747653216124 9.589425753802061E-4 0.009685581550002098 0.007060426753014326 -0.004430761095136404 0.008457722142338753 0.004545578733086586 -0.002606512513011694 0.00644639739766717 0.008288981392979622 2.0724341447930783E-4 -0.007197949569672346 -0.006900767795741558 -0.0019079888006672263 -0.008698009885847569 -0.0038838807959109545 0.007842942140996456 -0.008795483969151974 0.001515437150374055 0.0060632373206317425 -0.010293722152709961 -0.007451838348060846 -0.01082176435738802 0.006928218994289637 0.00770625239238143 0.0010594221530482173 0.006473758723586798 -0.006185146514326334 0.0037349446211010218 0.004644905216991901 0.009019623510539532 -0.002393512288108468 -0.006606933660805225 -1.996990031329915E-4 -0.0022193179465830326 0.0036869931500405073 -0.009151602163910866 0.00787162035703659 9.938288712874055E-4 -0.006836645305156708 -0.007397993002086878 -0.004290210548788309 -1.226804160978645E-4 5.401846137829125E-4 -0.005241771694272757 -0.0016871066763997078 0.008380272425711155 0.010325923562049866 -0.008967658504843712 -0.0013858278980478644 -0.0011783476220443845 -0.0015312760369852185 -0.002655841177329421 -8.677902951603755E-5 -0.004233554005622864
by 0.0017545142909511924 -0.002577665261924267 0.005469544790685177 0.0021581584587693214 0.006693643517792225 0.004865773022174835 0.004068613052368164 0.003796948119997978 0.0022913666907697916 0.004636384546756744 -0.003586037317290902 3.676412597997114E-5 5.6821433827281E-4 -0.001571677508763969 -0.004546799696981907 0.00569934630766511 0.002728578867390752 0.0034160814248025417 -0.006777537986636162 3.1240229873219505E-5 -0.003966185729950666 0.00234511261805892 0.005227241665124893 -0.002250149380415678 9.741269168443978E-4 -0.002579854102805257 -1.6476199380122125E-4 0.0016726638423278928 0.00488325534388423 -0.0022692251950502396 -0.00114630872849375 0.004388009663671255 0.00454874150454998 -0.0030848670285195112 3.097371882176958E-5 0.0060880607925355434 -0.0031957700848579407 0.0038068939466029406 0.0021861838176846504 7.490981370210648E-4 0.0031127871479839087 -0.0048140003345906734 -0.005867295898497105 -0.0015334236668422818 -0.0034119500778615475 0.0036711974535137415 -4.333770484663546E-4 -1.1888918379554525E-4 -0.0029334761202335358 -0.006934057455509901 0.0014780787751078606 0.0016439254395663738 -6.558653549291193E-4 0.0010524156969040632 -6.256172782741487E-4 0.004942407365888357 -0.00772657198831439 -0.0014834250323474407 -0.0014681131578981876 -0.003947640303522348 0.0027253993321210146 0.005643623881042004 -0.0010615496430546045 -0.004247412551194429 0.002769437385722995 0.0024353056214749813 -0.006000957917422056 -0.004839493427425623 0.0013853736454620957 0.005041352938860655 0.003104737028479576 -3.695347986649722E-4 0.0035456004552543163 0.004583516623824835 0.0020270540844649076 -0.0030852844938635826 0.0056817433796823025 -0.006038718391209841 0.002222782000899315 0.0018181274645030499 -0.0010355119593441486 -0.007304369937628508 -0.0023755491711199284 0.0027202675119042397 -0.003398809814825654 -0.005806636996567249 -0.0013461930211633444 0.005520423408597708 -0.004507435020059347 -6.094262353144586E-4 0.0034323788713663816 0.004784929100424051 0.0020702946931123734 -0.002494725165888667 0.0033781975507736206 -0.003519360674545169 0.004260839428752661 -9.971610270440578E-4 -0.0030153519473969936 -0.004896043799817562
to -0.0018821648554876447 -0.001836268464103341 0.0017379578202962875 0.0051369271241128445 0.0056644827127456665 0.001308518461883068 -0.004330853000283241 3.9410351746482775E-5 -6.971355178393424E-4 -3.1728504109196365E-4 0.002992134541273117 -0.0016218489035964012 -3.366057062521577E-4 0.005776781588792801 1.0121484592673369E-5 0.003817153861746192 -5.91724761761725E-4 -0.004615542478859425 -0.0058226678520441055 8.181911107385531E-5 -0.005001491867005825 -0.0022556199692189693 8.712750277481973E-4 0.007096562068909407 -0.002214353531599045 -0.006544800009578466 0.0021490012295544147 -0.0022309590131044388 0.005034033674746752 -0.0024573879782110453 -0.006704684346914291 -0.001293034409172833 -0.002733764937147498 -0.0021595489233732224 0.002035260433331132 0.007176441606134176 -5.534240626730025E-4 0.004010292701423168 0.00459325360134244 0.00598078453913331 -9.754802449606359E-4 -0.0035764628555625677 0.0035230403300374746 0.00513007678091526 0.0031686536967754364 0.0014469067100435495 0.0034897655714303255 0.004178687464445829 0.006553466897457838 -0.0018171633128076792 0.00676741125062108 -0.0010405252687633038 -0.0010308695491403341 -0.0021148219238966703 0.004130571149289608 -0.0012911430094391108 -0.0075150844641029835 0.003864852013066411 -0.0010470456909388304 -0.0051482548005878925 -0.005481294356286526 0.007536034099757671 -5.404616822488606E-4 -0.0036732524167746305 0.0030159337911754847 0.004329152870923281 1.4957194798626006E-4 -0.005149764474481344 0.007171910721808672 0.0034081696067005396 0.004600553307682276 -0.0011832434684038162 -0.005658258218318224 0.0036239682231098413 -0.002485415432602167 0.0033478662371635437 0.006852227263152599 -0.004698567092418671 -0.005989513359963894 -0.005583431106060743 0.002872652839869261 -0.006743958685547113 -5.277377786114812E-4 -0.005870307330042124 -0.001611298299394548 -0.006487048231065273 -0.0034961130004376173 0.003972089383751154 0.0032611361239105463 0.0017034326447173953 0.0038141077384352684 0.007466218899935484 0.0016520509961992502 0.0016084372764453292 0.0037960046902298927 0.004346794914454222 -0.0021501430310308933 3.7952105049043894E-4 -0.002606915542855859 -0.002435903064906597
